<?xml version="1.0"?>
<opencv_storage>
<stage1>
  <maxWeakCount>5</maxWeakCount>
  <stageThreshold>-6.8092268705368042e-01</stageThreshold>
  <weakClassifiers>
    <_>
      <internalNodes>
        0 -1 334848 3.0007684603333473e-02</internalNodes>
      <leafValues>
        -5.1086956262588501e-01 9.2947101593017578e-01</leafValues></_>
    <_>
      <internalNodes>
        0 -1 342418 -3.3371295779943466e-02</internalNodes>
      <leafValues>
        9.4057220220565796e-01 -4.9379128217697144e-01</leafValues></_>
    <_>
      <internalNodes>
        0 -1 752588 1.6348920762538910e-03</internalNodes>
      <leafValues>
        -8.4183448553085327e-01 5.6114983558654785e-01</leafValues></_>
    <_>
      <internalNodes>
        0 -1 154356 1.7535861581563950e-02</internalNodes>
      <leafValues>
        3.5430738329887390e-01 -9.8034477233886719e-01</leafValues></_>
    <_>
      <internalNodes>
        0 -1 1214806 1.6724171582609415e-03</internalNodes>
      <leafValues>
        -4.6770218014717102e-01 8.1126523017883301e-01</leafValues></_></weakClassifiers></stage1>
</opencv_storage>
